{"weights": ["1.008529077441041033e-01,-2.614122855831864656e-01,2.141565260601269172e-01,5.481899412387741116e-02,3.387949893142983004e-01,-1.055127369924658554e-01,8.051544599120764867e-02,8.160441417990003943e-02,-9.026534075541679802e-02,1.525236588055266240e-01\n7.144138938578119546e-01,-4.663294693699064908e-01,3.381560211403701333e-01,-5.099329864461816797e-01,3.238042694580058334e-01,2.908644942786838827e-01,-2.970566291515384094e-01,-4.720996373034345162e-01,5.525842405531090629e-01,-6.244258521449205790e-02\n4.599885417746881616e-02,-6.039114488860858332e-01,7.071072938199216562e-01,2.428355325114234520e-01,4.328001101057661337e-01,1.580921902678780466e-01,4.185364685279746588e-01,3.183840905611505789e-01,-6.687448921977735827e-02,5.700254645064101178e-01\n-2.631233156718035815e-01,3.560507091415135439e-01,-3.788258348670893172e-01,-1.513974795060466505e-01,-1.686606900268684539e-01,-8.816286519220059570e-02,1.575209725838450092e-01,5.117014305953901943e-01,7.602119834464382553e-01,-7.330774171603438027e-01\n4.253635947434700748e-01,-6.943535564084883926e-01,-2.575575646556401699e-01,7.415203438032501315e-02,-9.332035073604359743e-02,1.810551089965187948e-03,-2.844930819957792179e-01,3.034770430402281352e-02,9.308248598756128922e-02,-5.736437058057071159e-01\n-1.188351449519289976e-01,-7.703060740219047631e-01,5.296034771045091682e-01,-1.521041341262377999e-01,5.719442483421314227e-01,-3.938029491208307198e-02,3.364950626857454719e-01,1.258446466570580513e-01,-4.231233768170760551e-02,5.684344342181325560e-01\n1.562807879134033018e-01,-2.837641801223347859e-01,-4.089363599049068709e-02,1.241635383104388868e-01,-4.286563497859147316e-03,8.115473253965270473e-02,-7.316010796167546348e-02,1.659906866496791214e-02,1.609766902070606520e-01,-2.028764160271142869e-01\n-1.678040567458778110e-01,-4.400829754921141146e-01,1.504769028726951896e-01,-3.579180130038991936e-01,5.806810315646767501e-02,-4.090220904785490941e-01,2.984325697396330024e-01,4.961061473418619250e-01,-5.578381726921990413e-01,2.181528149648748749e-01\n2.567729977077782832e-01,-6.246302921573400058e-01,2.231813325275536566e-02,7.166014772548916500e-01,-3.804883870842935556e-01,-3.424353969010054954e-02,1.026692824761546163e-01,4.887944055073997207e-01,5.840197030486353746e-01,-5.655952443199759871e-01\n5.237961652774277832e-01,-5.896473845944751879e-01,6.179104680733648047e-01,-1.615912720726182528e-01,8.299634040893337783e-01,6.070751620996727577e-02,-1.151366105438165754e-01,-3.881903765302482934e-01,-7.465803601216455254e-01,7.527203726551621177e-01\n5.153760783793446265e-01,-7.710200301556572322e-01,-2.520354796747570347e-01,-8.618533877322205605e-03,-5.729834121572410788e-02,4.900555725095080348e-03,-3.301946620304658242e-01,-1.508101320138368132e-02,2.470048508904944817e-01,-6.558135091719979881e-01\n4.524934399515774253e-01,-5.253551720817274395e-01,6.066027432129831309e-01,4.339082298184404607e-01,1.065428532227125913e-01,3.004686220649299133e-01,1.220676513954267392e-02,-1.843610612677732408e-01,-7.086362089669094588e-02,4.563814829503880510e-01\n", "-3.160000477432125532e-01,-1.094798213082802674e+00,-1.473376377528686776e+00,-1.465497207281342806e+00,1.281016008319322719e+00,3.355784941605075566e+00,6.919455676135154443e-01,-1.006483948777321169e+00,-1.680522201474211830e+00,-1.890782379489252429e+00,1.410665727508309875e+00,-1.134786981530877537e+00\n"], "biases": ["-4.870410454930482747e-01\n-8.870704404304582957e-02\n-1.240493796590867115e+00\n7.150887435302427653e-01\n-7.902288512697100975e-01\n7.332639100098734541e-01\n-4.696218307068840692e-01\n-7.257914356197163741e-01\n4.153639856663750990e-02\n6.084038334590801123e-01\n-7.462787900637152250e-01\n-8.096651636411561492e-01\n", "6.926122318973151337e-01\n"]}