{"weights": ["-5.207377490118829388e-02,7.608194683253224899e-02,-2.403690012844768853e-01,2.460342989856554030e-01,-3.159166299884068052e-01,-3.643200132769324195e-01,-1.606378050105692623e-01,4.905334587985877293e-01\n-8.027842678293338474e-02,1.004225389995263562e-01,-1.106167091696725752e-01,1.933946167498440671e-01,-2.475907174853714532e-01,-2.029141446863637066e-01,-1.066096597239036270e-01,2.362227225865493607e-01\n-3.494322046155053374e-01,2.407495212067594648e-01,-1.579300067853879330e-01,4.009758722843616008e-01,-3.241655449328486038e-01,1.859395741982389216e-02,-3.706799402226177986e-01,-8.804490012078859396e-01\n-1.978886969736288470e-01,3.580040318939275434e-01,4.791677264916240908e-01,1.479712704039709836e-01,-1.921223513187268750e-01,1.341072649776148262e-01,-5.092781524682014060e-01,8.288008209651422445e-03\n1.119448905933230487e-01,-2.471805834080261777e-01,-1.142010952465851714e+00,4.035879441391772571e-01,-5.211491129807670486e-01,-6.379858024718366993e-02,2.264798481625777613e-03,9.515358753727433394e-02\n-3.352407010220602446e-02,3.898048846664225325e-02,-2.397035082335218503e-01,1.972224949510270886e-01,-2.578694339318791662e-01,2.529945587706338150e-01,-6.425532911939507708e-01,3.982051202567488124e-01\n-8.119516397938657259e-02,-4.325795298335857048e-02,-2.609564893583176670e-01,1.113307222881466663e-01,1.984959065715161675e-01,3.880791862442838358e-01,-5.715898667802009614e-01,-4.872193028482046384e-01\n-4.354743735805503002e-01,2.941198333809504906e-01,-2.063457774244074894e-01,4.961876193709083283e-01,-3.237094854419391154e-01,8.645884409936921422e-02,-4.409906595785716976e-01,-1.134618494698885316e+00\n-3.930903808279446326e-02,5.505948457052504269e-02,-1.880883806793135493e-01,1.878556269474556950e-01,-2.408023192678121482e-01,-2.464166657113454617e-01,-8.238853703830359421e-02,4.325059965367058501e-01\n-3.300690299153400536e-02,4.747268638621488651e-02,-1.540318573752434694e-01,1.541116006896028068e-01,-1.960319519311636838e-01,-1.945838763048805264e-01,-6.397114232644628140e-02,3.711034657417997540e-01\n-4.833910509950499479e-02,6.739194817475407939e-02,-1.409770836070121103e-01,1.723233904271250783e-01,-2.197147193361704554e-01,-2.185062010049335091e-01,-9.217890386331388519e-02,3.154690218182130690e-01\n-1.288690684338721359e-01,1.506351583252892867e-01,-3.949884302049085083e-02,2.096051616601320999e-01,-2.678276483413276621e-01,-8.878957840949706914e-02,-1.655563338281652030e-01,3.220793024968195140e-02\n-4.869515693321097016e-02,7.293620760270491665e-02,-2.233057746278533651e-01,2.287468101170352652e-01,-2.922771750891490217e-01,-3.318384597325609864e-01,-1.341378635212014392e-01,4.635439619211648710e-01\n-1.223318958959037778e-01,1.421622829778732555e-01,-5.746233784694950580e-02,2.148695524491332220e-01,-2.748044007268363176e-01,-1.359940905194491068e-01,-1.224533863614386403e-01,1.263044298435458956e-01\n6.405910249445465705e-04,-2.457471808532514790e-01,-9.191650420038243174e-01,2.692411092772152292e-01,9.861398126170442535e-02,-2.349536091382807279e-01,-5.428770324162187633e-01,-2.285300011947217214e-01\n3.976704425846078195e-02,-2.601594885324080564e-01,-9.043330322156243328e-01,2.383111669832013724e-01,1.619249640448392202e-01,-1.608631713314385980e-01,-5.209774814218652850e-01,-6.121442774200448050e-02\n-1.615124952363091726e-01,1.865479534102467418e-01,1.667960468189346249e-02,2.224030602367994547e-01,-2.788350331115592162e-01,3.064730351067313646e-02,-3.976271473293563341e-01,-3.811834266282138062e-01\n-2.194165797077889946e-01,3.944699716301187653e-01,5.738081915621936480e-01,1.352822684576525103e-01,-1.802230968518422072e-01,5.467682978671577487e-01,-1.397686763592781711e-01,-4.104257974509673557e-01\n-3.818040223340307127e-01,2.565876195439386609e-01,-1.707663478132159240e-01,4.282344410250776279e-01,-3.287683425518076463e-01,3.821592149133855310e-02,-3.921944102165764168e-01,-9.662560222009836108e-01\n1.114065514717695743e-01,-2.483306918563680521e-01,-1.144347309131893864e+00,4.035148968334562603e-01,-5.227790057258316914e-01,-6.352692510561012973e-02,2.607049811445047178e-03,9.459760013749048124e-02\n", "-5.264330913211376917e-01,-5.701123695024120641e-01,-1.075203864919694219e+00,-1.033896530350409737e+00,-7.320064001018862232e-01,-7.688593758511974574e-01,-1.557911562236867331e+00,-1.441570322703811469e+00,-5.384315779133160840e-01,-5.649838413652985558e-01,-5.574065609793169562e-01,-5.863474163643529469e-01,-5.234863042985072878e-01,-5.910948165409563027e-01,-9.880479555677074144e-01,-1.016535830751974290e+00,-7.518176644365487382e-01,-1.035963695622035274e+00,-1.160673313061122869e+00,-7.315415922377261904e-01\n-7.536713594826077722e-01,-5.583066642906798771e-01,-1.473862834155223345e+00,-1.189804250173470468e+00,-8.528891073212924168e-01,-6.729601498122737002e-01,-1.028199562450357041e+00,-1.725240948990576006e+00,-6.460910828484974777e-01,-6.056699778269680756e-01,-6.069619396347520901e-01,-4.956767800164996740e-01,-7.114361052384446937e-01,-5.301863033471013731e-01,-1.008632773861118714e+00,-9.596334466522922213e-01,-7.396485907504776192e-01,-1.357262265485480235e+00,-1.562994529739242466e+00,-8.426060488947675342e-01\n"], "biases": ["8.007819896962418971e-02\n4.412227784198082675e-02\n4.183718035383240386e-01\n-4.028833877298796384e-01\n1.084591738191200729e-02\n-3.111263781961463581e-01\n-5.058888292395954389e-01\n4.912694214752209576e-01\n1.070271316603625261e-01\n1.349584117229734315e-01\n7.898379769196235689e-02\n2.253075538913772852e-02\n7.834523087647499162e-02\n2.284608533715332471e-02\n-4.744732987189764772e-02\n-9.930420358680641657e-02\n1.059428477245896033e-01\n-3.859892435654248555e-01\n4.448808522207198801e-01\n1.117544344922075106e-02\n", "8.437922212821590051e+00\n9.813946697817497622e+00\n"]}