{"weights": ["5.554560941906864224e-01,-3.657567865661437989e-01,4.390993528492201370e-01,-2.459162434473919912e-01,2.695453571575475160e-01,1.186214343221977524e-01,-1.697218259273664265e-01,-3.722456673232151236e-01,1.798127833089284422e-01,2.149822838783768952e-01\n1.984304796144409633e-01,-4.881130133365310098e-01,-1.662447635931058390e-02,-2.872040841814793577e-02,-3.839956682568706342e-02,-2.042151246764661865e-02,3.181552467235247011e-02,2.988438138767953722e-01,3.584766431598059855e-01,-4.147280326633486225e-01\n1.112520527354669553e-01,-4.966360745883735550e-01,7.317104222021308946e-01,9.326299100303668543e-02,3.843254946375619374e-01,1.071504143075008818e-02,3.552866328770455939e-01,1.856339256757214839e-01,8.213852105048684293e-02,5.601950346579599449e-01\n6.122593205435415964e-01,-7.592779222554045804e-01,-6.056261871445973305e-02,-4.792255151790987544e-02,-1.195060276970188878e-01,-1.027946502980121163e-01,-3.633170555348719799e-01,-2.231741213359927090e-01,2.032704119664426601e-01,-4.111586557547214360e-01\n1.336544622159152873e-01,-1.738624101658339804e-01,8.760917767694685609e-02,3.394553288932432022e-01,-2.411553529751662150e-01,-1.711647026859572374e-01,-8.676532486766022623e-02,-1.633805546891890503e-01,-1.965136183182941976e-01,1.570166429381527895e-01\n1.255190796656179830e-01,2.829321527193102703e-01,-3.796305435809314566e-01,5.891119060626875958e-01,-9.603249986607766964e-01,-1.490278134051859216e-01,-2.922032221353628723e-01,-1.955858734986332115e-01,1.123598740195667217e-01,-4.159319435235990792e-01\n3.324151872728773882e-01,-3.420512975765092611e-01,1.537822271555303218e-02,-3.255715960528947628e-01,1.279391102877972253e-01,1.907919977486050578e-01,-1.634220340257775961e-01,-8.487161328716798236e-02,7.397837866611665925e-02,-1.798295840591351558e-01\n4.369088058518912909e-01,-9.189530720023884047e-01,-3.360713565620202514e-01,3.147775429041450163e-02,-2.332596618776840505e-02,-5.056629447155425866e-02,-2.786233099105525080e-01,1.573100064511881169e-01,5.924608427707753894e-02,-7.125141409033017847e-01\n6.963872590632468051e-02,-6.413470474224117202e-02,3.263232054086172979e-02,-8.922615121906078695e-02,7.543216221686845080e-02,2.421198476879110884e-01,-5.313435767196638543e-02,-8.133661870459313326e-02,-2.264669471912966192e-01,1.082667794095928254e-01\n2.648519690071756139e-01,-4.768007287681170769e-01,-4.236443773010895586e-01,-2.122394477330631912e-01,2.386011230288899998e-01,-2.638764568039612679e-01,-2.577685848019264370e-01,1.377825020253278243e-01,-5.126566916097659993e-02,-6.494797604580623274e-01\n4.860735640883667164e-01,-3.145767418742632104e-01,6.838438212607911293e-01,-2.388420219670911171e-01,3.581597643596748926e-01,-6.193676472656826915e-02,5.075778155860530966e-02,-2.161854467728605844e-01,7.605239924649166428e-01,2.233367363672890960e-01\n5.239684062017664345e-01,-2.322700621375480001e-01,3.912316288903852635e-01,1.266816117730043892e-02,1.991355616324157474e-01,-1.556268440212178472e-01,-1.693115846094632726e-01,-3.714851331741842455e-01,3.607153911999406715e-01,1.194803715823271606e-01\n", "-9.071635654779660607e-01,-7.757865962040065844e-01,-1.765483889548766339e+00,1.277017142573056097e+00,5.331261290137363495e-01,-1.295853824996480830e+00,-5.332858968054294824e-01,1.431659983953139870e+00,3.426234860028218865e-01,-1.003424737257821775e+00,1.459700381281224590e+00,-7.382445513829400952e-01\n"], "biases": ["-5.994864292332754419e-01\n-4.494779120590830512e-01\n-9.220844477553939988e-01\n-4.595643957784499301e-01\n-1.223199257368246806e-01\n1.736634060073409258e-01\n-1.396851170355492000e-01\n-8.141356853647265801e-01\n-1.626665379690062085e-01\n-1.191525766817777832e-01\n-6.214802346661796317e-01\n-3.164697700444037420e-01\n", "8.028022167973376533e-01\n"]}